{"graph_0": {"_type": "graph-file", "path": "media/graph/graph_0_summary_893ae0fa7e7af797f623.graph.json", "sha256": "893ae0fa7e7af797f62351b78dfcae07168d5bf26baa6870010e6a0612dcc9b1", "size": 3840}, "gradients/graph_4net.mixtureoflogits_16.fc_sigma.bias": {"_type": "histogram", "values": [1.0, 0.0, 0.0, 0.0, 0.0, 0.0, 0.0, 0.0, 0.0, 0.0, 0.0, 0.0, 0.0, 0.0, 0.0, 0.0, 0.0, 0.0, 0.0, 0.0, 0.0, 1.0, 0.0, 1.0, 0.0, 0.0, 0.0, 0.0, 0.0, 4.0, 0.0, 0.0, 0.0, 0.0, 0.0, 0.0, 0.0, 0.0, 0.0, 0.0, 0.0, 0.0, 0.0, 0.0, 0.0, 1.0, 0.0, 0.0, 0.0, 1.0, 0.0, 0.0, 0.0, 0.0, 0.0, 0.0, 0.0, 0.0, 0.0, 0.0, 0.0, 0.0, 0.0, 1.0], "bins": [-0.0023704287596046925, -0.002289240015670657, -0.002208051271736622, -0.00212686276063323, -0.002045674016699195, -0.0019644852727651596, -0.0018832966452464461, -0.0018021080177277327, -0.0017209192737936974, -0.001639730529859662, -0.0015585419023409486, -0.001477353274822235, -0.0013961645308881998, -0.0013149757869541645, -0.001233787159435451, -0.0011525985319167376, -0.0010714097879827023, -0.000990221044048667, -0.0009090324165299535, -0.0008278437308035791, -0.0007466550450772047, -0.0006654663593508303, -0.0005842776736244559, -0.0005030889878980815, -0.00042190030217170715, -0.00034071161644533277, -0.0002595229307189584, -0.000178334244992584, -9.71455592662096e-05, -1.5956873539835215e-05, 6.523181218653917e-05, 0.00014642049791291356, 0.0002276089508086443, 0.0003087976365350187, 0.00038998632226139307, 0.00047117500798776746, 0.0005523636937141418, 0.0006335523794405162, 0.0007147410651668906, 0.000795929750893265, 0.0008771184366196394, 0.0009583071223460138, 0.0010394958080723882, 0.0011206844355911016, 0.001201873179525137, 0.0012830619234591722, 0.0013642505509778857, 0.0014454391784965992, 0.0015266279224306345, 0.0016078166663646698, 0.0016890052938833833, 0.0017701939214020967, 0.001851382665336132, 0.0019325714092701674, 0.0020137601532042027, 0.0020949486643075943, 0.0021761374082416296, 0.002257326152175665, 0.0023385146632790565, 0.002419703407213092, 0.002500892151147127, 0.0025820808950811625, 0.0026632696390151978, 0.0027444581501185894, 0.0028256468940526247]}, "gradients/graph_4net.mixtureoflogits_16.fc_sigma.weight": {"_type": "histogram", "values": [1.0, 1.0, 1.0, 1.0, 0.0, 2.0, 3.0, 4.0, 3.0, 10.0, 11.0, 13.0, 16.0, 46.0, 352.0, 23.0, 23.0, 20.0, 18.0, 13.0, 14.0, 5.0, 10.0, 13.0, 4.0, 6.0, 3.0, 1.0, 3.0, 3.0, 2.0, 1.0, 1.0, 0.0, 0.0, 4.0, 2.0, 0.0, 1.0, 0.0, 0.0, 0.0, 1.0, 0.0, 1.0, 1.0, 0.0, 1.0, 0.0, 1.0, 0.0, 0.0, 0.0, 0.0, 0.0, 0.0, 0.0, 0.0, 0.0, 0.0, 0.0, 0.0, 0.0, 1.0], "bins": [-0.003836284391582012, -0.0035634953528642654, -0.003290706081315875, -0.0030179168097674847, -0.002745127771049738, -0.002472338732331991, -0.002199549460783601, -0.0019267603056505322, -0.0016539711505174637, -0.0013811819953843951, -0.0011083928402513266, -0.000835603685118258, -0.0005628145299851894, -0.0002900253748521209, -1.7236219719052315e-05, 0.00025555293541401625, 0.0005283420905470848, 0.0008011312456801534, 0.001073920400813222, 0.0013467095559462905, 0.001619498711079359, 0.0018922878662124276, 0.002165077021345496, 0.0024378662928938866, 0.0027106553316116333, 0.00298344437032938, 0.0032562336418777704, 0.003529022913426161, 0.0038018119521439075, 0.004074600990861654, 0.004347390495240688, 0.004620179533958435, 0.004892968572676182, 0.0051657576113939285, 0.005438546650111675, 0.005711336154490709, 0.005984125193208456, 0.006256914231926203, 0.006529703736305237, 0.0068024927750229836, 0.00707528181374073, 0.007348070852458477, 0.007620859891176224, 0.00789364892989397, 0.008166437968611717, 0.008439227938652039, 0.008712016977369785, 0.008984806016087532, 0.009257595054805279, 0.009530384093523026, 0.009803173132240772, 0.010075962170958519, 0.01034875214099884, 0.010621541179716587, 0.010894330218434334, 0.01116711925715208, 0.011439908295869827, 0.011712697334587574, 0.01198548637330532, 0.012258275412023067, 0.012531064450740814, 0.012803854420781136, 0.013076643459498882, 0.013349432498216629, 0.013622221536934376]}, "gradients/graph_4net.mixtureoflogits_16.fc_mu.bias": {"_type": "histogram", "values": [1.0, 0.0, 1.0, 1.0, 0.0, 1.0, 1.0, 0.0, 1.0, 1.0, 1.0, 0.0, 1.0, 0.0, 1.0, 1.0, 3.0, 3.0, 5.0, 3.0, 5.0, 0.0, 42.0, 7.0, 5.0, 1.0, 3.0, 0.0, 2.0, 1.0, 1.0, 0.0, 1.0, 1.0, 1.0, 2.0, 0.0, 0.0, 0.0, 0.0, 0.0, 0.0, 0.0, 1.0, 0.0, 0.0, 0.0, 0.0, 0.0, 0.0, 0.0, 0.0, 0.0, 0.0, 0.0, 0.0, 0.0, 0.0, 0.0, 1.0, 0.0, 0.0, 0.0, 1.0], "bins": [-0.000902989530004561, -0.0008624416077509522, -0.0008218936854973435, -0.0007813457050360739, -0.0007407977827824652, -0.0007002498605288565, -0.0006597018800675869, -0.0006191539578139782, -0.0005786060355603695, -0.0005380581133067608, -0.0004975101910531521, -0.00045696221059188247, -0.00041641428833827376, -0.00037586636608466506, -0.0003353184147272259, -0.00029477046336978674, -0.00025422254111617804, -0.0002136746043106541, -0.00017312666750513017, -0.00013257873069960624, -9.203079389408231e-05, -5.1482857088558376e-05, -1.0934920283034444e-05, 2.9613031074404716e-05, 7.016095332801342e-05, 0.00011070889013353735, 0.00015125682693906128, 0.00019180476374458522, 0.00023235270055010915, 0.00027290062280371785, 0.000313448574161157, 0.00035399652551859617, 0.0003945445641875267, 0.0004350924864411354, 0.00047564043779857457, 0.0005161883891560137, 0.0005567363114096224, 0.0005972842336632311, 0.0006378322141245008, 0.0006783801363781095, 0.0007189280586317182, 0.0007594759808853269, 0.0008000239031389356, 0.0008405718836002052, 0.0008811198058538139, 0.0009216677281074226, 0.0009622157085686922, 0.001002763630822301, 0.0010433115530759096, 0.0010838594753295183, 0.001124407397583127, 0.0011649553198367357, 0.0012055032420903444, 0.001246051280759275, 0.0012865992030128837, 0.0013271471252664924, 0.001367695047520101, 0.0014082429697737098, 0.0014487908920273185, 0.0014893388142809272, 0.0015298868529498577, 0.0015704347752034664, 0.0016109826974570751, 0.0016515306197106838, 0.0016920785419642925]}, "gradients/graph_4net.mixtureoflogits_16.fc_mu.weight": {"_type": "histogram", "values": [1.0, 0.0, 0.0, 1.0, 0.0, 0.0, 2.0, 1.0, 0.0, 0.0, 0.0, 2.0, 3.0, 1.0, 1.0, 4.0, 9.0, 16.0, 17.0, 21.0, 38.0, 44.0, 90.0, 182.0, 310.0, 5141.0, 252.0, 85.0, 60.0, 32.0, 17.0, 18.0, 15.0, 6.0, 7.0, 7.0, 2.0, 4.0, 1.0, 2.0, 1.0, 1.0, 1.0, 0.0, 0.0, 0.0, 1.0, 0.0, 0.0, 1.0, 0.0, 0.0, 1.0, 1.0, 0.0, 0.0, 0.0, 0.0, 0.0, 0.0, 0.0, 0.0, 0.0, 1.0], "bins": [-0.004155374132096767, -0.003991242032498121, -0.0038271101657301188, -0.0036629782989621162, -0.00349884619936347, -0.0033347143325954676, -0.003170582465827465, -0.003006450366228819, -0.0028423182666301727, -0.0026781863998621702, -0.002514054300263524, -0.0023499224334955215, -0.0021857903338968754, -0.002021658467128873, -0.0018575264839455485, -0.0016933945007622242, -0.0015292626339942217, -0.0013651306508108974, -0.001200998667627573, -0.0010368668008595705, -0.0008727347594685853, -0.0007086027762852609, -0.0005444708513095975, -0.00038033886812627316, -0.00021620688494294882, -5.207491631153971e-05, 0.0001120570523198694, 0.0002761890063993633, 0.0004403209895826876, 0.000604452972766012, 0.0007685848977416754, 0.0009327168809249997, 0.001096848864108324, 0.0012609808472916484, 0.0014251128304749727, 0.0015892446972429752, 0.0017533767968416214, 0.001917508663609624, 0.0020816405303776264, 0.0022457726299762726, 0.0024099047295749187, 0.0025740365963429213, 0.0027381686959415674, 0.00290230056270957, 0.003066432662308216, 0.0032305645290762186, 0.003394696395844221, 0.0035588284954428673, 0.00372296036221087, 0.0038870922289788723, 0.0040512243285775185, 0.004215356428176165, 0.0043794880621135235, 0.00454362016171217, 0.004707752261310816, 0.004871884360909462, 0.005036015994846821, 0.005200148094445467, 0.005364279728382826, 0.005528411827981472, 0.005692543927580118, 0.005856676027178764, 0.006020807661116123, 0.006184939760714769, 0.0063490718603134155]}, "gradients/graph_4net.mixtureoflogits_16.fc_pi.bias": {"_type": "histogram", "values": [1.0, 0.0, 0.0, 0.0, 0.0, 0.0, 0.0, 0.0, 0.0, 0.0, 0.0, 0.0, 0.0, 1.0, 0.0, 0.0, 0.0, 0.0, 0.0, 0.0, 1.0, 0.0, 0.0, 0.0, 0.0, 0.0, 0.0, 0.0, 0.0, 5.0, 0.0, 0.0, 0.0, 0.0, 0.0, 0.0, 0.0, 0.0, 0.0, 0.0, 0.0, 0.0, 0.0, 0.0, 0.0, 0.0, 0.0, 0.0, 1.0, 0.0, 0.0, 0.0, 0.0, 0.0, 0.0, 0.0, 0.0, 0.0, 0.0, 0.0, 0.0, 0.0, 0.0, 1.0], "bins": [-0.0032711816020309925, -0.003160432679578662, -0.0030496835242956877, -0.002938934601843357, -0.002828185446560383, -0.0027174365241080523, -0.0026066876016557217, -0.0024959384463727474, -0.002385189291089773, -0.0022744403686374426, -0.0021636912133544683, -0.0020529422909021378, -0.0019421931356191635, -0.001831444213166833, -0.0017206951742991805, -0.001609946135431528, -0.0014991972129791975, -0.001388448174111545, -0.0012776991352438927, -0.001166950212791562, -0.0010562010575085878, -0.0009454520768485963, -0.0008347030961886048, -0.0007239540573209524, -0.0006132050184533, -0.0005024559795856476, -0.0003917069698218256, -0.00028095796005800366, -0.00017020892119035125, -5.945988232269883e-05, 5.128909833729267e-05, 0.0001620381372049451, 0.0002727871760725975, 0.0003835362149402499, 0.0004942852538079023, 0.0006050342344678938, 0.0007157832733355463, 0.0008265323122031987, 0.0009372812928631902, 0.0010480303317308426, 0.001158779370598495, 0.0012695284094661474, 0.0013802774483337998, 0.0014910264872014523, 0.0016017754096537828, 0.001712524564936757, 0.0018232734873890877, 0.00193402252625674, 0.0020447715651243925, 0.002155520487576723, 0.0022662696428596973, 0.002377018565312028, 0.002487767720595002, 0.0025985166430473328, 0.002709265798330307, 0.0028200147207826376, 0.002930763643234968, 0.0030415125656872988, 0.003152261720970273, 0.0032630106434226036, 0.003373759798705578, 0.0034845087211579084, 0.003595257643610239, 0.0037060067988932133, 0.0038167559541761875]}, "gradients/graph_4net.mixtureoflogits_16.fc_pi.weight": {"_type": "histogram", "values": [1.0, 0.0, 0.0, 0.0, 0.0, 0.0, 0.0, 0.0, 0.0, 0.0, 0.0, 0.0, 0.0, 2.0, 4.0, 1.0, 0.0, 1.0, 2.0, 3.0, 1.0, 4.0, 3.0, 1.0, 5.0, 2.0, 13.0, 6.0, 11.0, 6.0, 4.0, 13.0, 20.0, 209.0, 192.0, 30.0, 29.0, 18.0, 10.0, 7.0, 10.0, 4.0, 8.0, 2.0, 5.0, 2.0, 3.0, 3.0, 0.0, 0.0, 0.0, 0.0, 0.0, 2.0, 1.0, 0.0, 0.0, 0.0, 0.0, 1.0, 0.0, 0.0, 0.0, 1.0], "bins": [-0.010862274095416069, -0.010542555712163448, -0.010222836397588253, -0.009903118014335632, -0.009583399631083012, -0.009263681247830391, -0.008943961933255196, -0.008624243550002575, -0.008304525166749954, -0.007984806783497334, -0.0076650879345834255, -0.0073453690856695175, -0.007025650702416897, -0.006705931853502989, -0.006386213004589081, -0.00606649462133646, -0.005746775306761265, -0.005427056457847357, -0.005107338074594736, -0.004787619225680828, -0.004467900842428207, -0.004148181993514299, -0.0038284631446003914, -0.003508744528517127, -0.0031890259124338627, -0.0028693072963505983, -0.002549588680267334, -0.002229869831353426, -0.0019101512152701616, -0.0015904325991868973, -0.001270713866688311, -0.0009509951341897249, -0.0006312765181064606, -0.0003115578438155353, 8.160830475389957e-06, 0.0003278795047663152, 0.0006475981790572405, 0.0009673167951405048, 0.001287035527639091, 0.0016067542601376772, 0.0019264728762209415, 0.002246191492304206, 0.0025659101083874702, 0.0028856289573013783, 0.0032053475733846426, 0.003525066189467907, 0.003844785038381815, 0.004164503887295723, 0.004484222270548344, 0.004803941119462252, 0.005123659502714872, 0.00544337835162878, 0.005763096734881401, 0.006082815583795309, 0.006402534432709217, 0.006722252815961838, 0.007041971664875746, 0.007361690513789654, 0.0076814088970422745, 0.008001127280294895, 0.00832084659487009, 0.008640564978122711, 0.008960283361375332, 0.009280002675950527, 0.009599721059203148]}, "gradients/graph_4net.linear_13.bias": {"_type": "histogram", "values": [1.0, 0.0, 0.0, 0.0, 0.0, 0.0, 0.0, 0.0, 0.0, 1.0, 1.0, 0.0, 0.0, 1.0, 1.0, 1.0, 1.0, 0.0, 0.0, 2.0, 4.0, 2.0, 2.0, 2.0, 3.0, 1.0, 2.0, 3.0, 2.0, 2.0, 2.0, 12.0, 0.0, 2.0, 1.0, 1.0, 0.0, 2.0, 1.0, 0.0, 0.0, 1.0, 1.0, 1.0, 0.0, 1.0, 0.0, 0.0, 0.0, 0.0, 1.0, 2.0, 1.0, 1.0, 0.0, 0.0, 0.0, 0.0, 0.0, 0.0, 0.0, 1.0, 0.0, 1.0], "bins": [-0.0022118790075182915, -0.0021417965181171894, -0.0020717140287160873, -0.0020016315393149853, -0.001931549166329205, -0.001861466676928103, -0.0017913843039423227, -0.0017213018145412207, -0.0016512193251401186, -0.0015811368357390165, -0.0015110543463379145, -0.0014409719733521342, -0.0013708894839510322, -0.00130080699454993, -0.0012307246215641499, -0.0011606421321630478, -0.0010905596427619457, -0.0010204771533608437, -0.0009503947221674025, -0.0008803122909739614, -0.0008102298015728593, -0.0007401473121717572, -0.0006700648809783161, -0.0005999824497848749, -0.0005298999603837729, -0.00045981750008650124, -0.00038973503978922963, -0.000319652579491958, -0.0002495701191946864, -0.0001794876588974148, -0.0001094051986001432, -3.932276740670204e-05, 3.075995482504368e-05, 0.00010084241512231529, 0.0001709248754195869, 0.0002410073357168585, 0.0003110897960141301, 0.0003811722563114017, 0.00045125471660867333, 0.0005213371478021145, 0.0005914196372032166, 0.0006615021266043186, 0.0007315845577977598, 0.0008016669889912009, 0.000871749478392303, 0.0009418319677934051, 0.0010119143407791853, 0.0010819968301802874, 0.0011520793195813894, 0.0012221618089824915, 0.0012922442983835936, 0.0013623266713693738, 0.0014324091607704759, 0.001502491650171578, 0.0015725740231573582, 0.0016426565125584602, 0.0017127390019595623, 0.0017828214913606644, 0.0018529039807617664, 0.0019229863537475467, 0.0019930689595639706, 0.002063151216134429, 0.002133233705535531, 0.002203316194936633, 0.002273398684337735]}, "gradients/graph_4net.linear_13.weight": {"_type": "histogram", "values": [2.0, 2.0, 1.0, 0.0, 1.0, 0.0, 1.0, 0.0, 1.0, 3.0, 3.0, 4.0, 2.0, 7.0, 9.0, 18.0, 11.0, 10.0, 26.0, 42.0, 63.0, 54.0, 71.0, 98.0, 143.0, 169.0, 222.0, 383.0, 5920.0, 233.0, 139.0, 97.0, 70.0, 62.0, 60.0, 49.0, 38.0, 22.0, 35.0, 22.0, 14.0, 18.0, 3.0, 12.0, 9.0, 3.0, 2.0, 9.0, 2.0, 2.0, 2.0, 4.0, 2.0, 2.0, 2.0, 2.0, 1.0, 3.0, 1.0, 2.0, 0.0, 1.0, 0.0, 3.0], "bins": [-0.004614575766026974, -0.004451449029147625, -0.004288322292268276, -0.00412519508972764, -0.003962068352848291, -0.0037989416159689426, -0.0036358146462589502, -0.003472687676548958, -0.003309560939669609, -0.0031464342027902603, -0.002983307233080268, -0.0028201802633702755, -0.0026570535264909267, -0.002493926789611578, -0.0023307998199015856, -0.002167672850191593, -0.0020045461133122444, -0.0018414192600175738, -0.0016782924067229033, -0.0015151655534282327, -0.001352038700133562, -0.0011889118468388915, -0.001025784993544221, -0.0008626581402495503, -0.0006995312869548798, -0.0005364044336602092, -0.0003732775803655386, -0.00021015072707086802, -4.7023873776197433e-05, 0.00011610297951847315, 0.00027922983281314373, 0.0004423566861078143, 0.0006054835394024849, 0.0007686103926971555, 0.0009317372459918261, 0.0010948640992864966, 0.0012579909525811672, 0.0014211178058758378, 0.0015842446591705084, 0.001747371512465179, 0.0019104983657598495, 0.0020736251026391983, 0.0022367520723491907, 0.002399879042059183, 0.002563005778938532, 0.0027261325158178806, 0.002889259485527873, 0.0030523864552378654, 0.003215513192117214, 0.003378639928996563, 0.0035417668987065554, 0.0037048938684165478, 0.0038680206052958965, 0.004031147342175245, 0.004194274544715881, 0.00435740128159523, 0.004520528018474579, 0.004683654755353928, 0.004846781492233276, 0.005009908694773912, 0.005173035431653261, 0.00533616216853261, 0.005499289371073246, 0.005662416107952595, 0.0058255428448319435]}, "gradients/graph_4net.linear_10.bias": {"_type": "histogram", "values": [1.0, 0.0, 0.0, 3.0, 0.0, 1.0, 0.0, 0.0, 1.0, 0.0, 1.0, 0.0, 1.0, 1.0, 2.0, 4.0, 4.0, 2.0, 0.0, 2.0, 1.0, 0.0, 4.0, 4.0, 74.0, 2.0, 2.0, 2.0, 2.0, 1.0, 0.0, 1.0, 1.0, 2.0, 1.0, 0.0, 0.0, 0.0, 0.0, 1.0, 0.0, 0.0, 0.0, 1.0, 2.0, 0.0, 1.0, 0.0, 0.0, 0.0, 0.0, 0.0, 0.0, 1.0, 1.0, 0.0, 0.0, 0.0, 0.0, 0.0, 0.0, 0.0, 0.0, 1.0], "bins": [-0.0016901243943721056, -0.0016200327081605792, -0.0015499411383643746, -0.0014798494521528482, -0.0014097578823566437, -0.0013396661961451173, -0.0012695745099335909, -0.0011994829401373863, -0.00112939125392586, -0.0010592995677143335, -0.000989207997918129, -0.0009191163117066026, -0.0008490246837027371, -0.0007789330556988716, -0.0007088413694873452, -0.0006387497414834797, -0.0005686581134796143, -0.0004985664854757488, -0.00042847482836805284, -0.0003583831712603569, -0.0002882915432564914, -0.00021819991525262594, -0.00014810825814493, -7.801660103723407e-05, -7.924973033368587e-06, 6.216666952241212e-05, 0.00013225831207819283, 0.00020234995463397354, 0.00027244159718975425, 0.00034253322519361973, 0.00041262488230131567, 0.0004827165394090116, 0.0005528081674128771, 0.0006228997954167426, 0.000692991423420608, 0.0007630831096321344, 0.0008331747376359999, 0.0009032663656398654, 0.0009733580518513918, 0.0010434496216475964, 0.0011135413078591228, 0.0011836329940706491, 0.0012537245638668537, 0.00132381625007838, 0.0013939079362899065, 0.001463999506086111, 0.0015340911922976375, 0.0016041828785091639, 0.0016742744483053684, 0.0017443661345168948, 0.0018144577043130994, 0.0018845493905246258, 0.0019546409603208303, 0.002024732530117035, 0.002094824332743883, 0.0021649159025400877, 0.0022350074723362923, 0.002305099042132497, 0.002375190844759345, 0.0024452824145555496, 0.002515373984351754, 0.0025854655541479588, 0.002655557356774807, 0.0027256489265710115, 0.0027957407291978598]}, "gradients/graph_4net.linear_10.weight": {"_type": "histogram", "values": [2.0, 1.0, 2.0, 0.0, 3.0, 2.0, 0.0, 7.0, 8.0, 12.0, 11.0, 15.0, 25.0, 26.0, 51.0, 75.0, 109.0, 167.0, 244.0, 424.0, 645.0, 1195.0, 2049.0, 4223.0, 14315.0, 114443.0, 3836.0, 1912.0, 1134.0, 721.0, 437.0, 354.0, 268.0, 175.0, 114.0, 99.0, 97.0, 57.0, 39.0, 43.0, 27.0, 17.0, 12.0, 12.0, 8.0, 4.0, 6.0, 3.0, 7.0, 3.0, 2.0, 6.0, 0.0, 0.0, 1.0, 2.0, 2.0, 0.0, 1.0, 0.0, 0.0, 1.0, 0.0, 2.0], "bins": [-0.003900327021256089, -0.00374480988830328, -0.0035892927553504705, -0.003433775622397661, -0.003278258489444852, -0.0031227413564920425, -0.002967224456369877, -0.002811707090586424, -0.002656190190464258, -0.002500673057511449, -0.0023451559245586395, -0.00218963879160583, -0.002034121658653021, -0.0018786045257002115, -0.001723087509162724, -0.0015675703762099147, -0.0014120531268417835, -0.0012565359938889742, -0.0011010188609361649, -0.0009455017861910164, -0.0007899846532382071, -0.0006344675202853978, -0.00047895044554024935, -0.00032343331258744, -0.00016791617963463068, -1.2399061233736575e-05, 0.00014311805716715753, 0.0002986351610161364, 0.00045415229396894574, 0.0006096694269217551, 0.0007651865016669035, 0.0009207036346197128, 0.0010762210004031658, 0.0012317381333559752, 0.0013872552663087845, 0.0015427723992615938, 0.0016982895322144032, 0.0018538066651672125, 0.002009323798120022, 0.0021648406982421875, 0.0023203580640256405, 0.00247587519697845, 0.002631392329931259, 0.0027869094628840685, 0.002942426595836878, 0.003097943728789687, 0.0032534608617424965, 0.003408977761864662, 0.0035644948948174715, 0.003720012027770281, 0.00387552916072309, 0.0040310462936758995, 0.004186563193798065, 0.004342080559581518, 0.004497597459703684, 0.004653114825487137, 0.0048086317256093025, 0.004964148625731468, 0.005119665991514921, 0.005275182891637087, 0.00543070025742054, 0.0055862171575427055, 0.0057417345233261585, 0.005897251423448324, 0.006052768789231777]}, "gradients/graph_4net.conv2d_06.bias": {"_type": "histogram", "values": [1.0, 0.0, 0.0, 0.0, 0.0, 0.0, 0.0, 0.0, 0.0, 0.0, 0.0, 0.0, 1.0, 0.0, 1.0, 0.0, 1.0, 0.0, 1.0, 0.0, 0.0, 0.0, 3.0, 2.0, 3.0, 3.0, 4.0, 5.0, 12.0, 1.0, 9.0, 10.0, 7.0, 8.0, 7.0, 7.0, 8.0, 3.0, 3.0, 7.0, 2.0, 1.0, 5.0, 3.0, 2.0, 0.0, 0.0, 2.0, 2.0, 0.0, 1.0, 1.0, 0.0, 0.0, 0.0, 0.0, 0.0, 0.0, 1.0, 0.0, 0.0, 0.0, 0.0, 1.0], "bins": [-0.0028243507258594036, -0.002735330956056714, -0.002646310953423381, -0.0025572911836206913, -0.002468271180987358, -0.0023792514111846685, -0.002290231641381979, -0.0022012116387486458, -0.0021121918689459562, -0.0020231720991432667, -0.0019341520965099335, -0.001845132326707244, -0.0017561124404892325, -0.0016670925542712212, -0.0015780727844685316, -0.0014890528982505202, -0.0014000330120325089, -0.0013110131258144975, -0.001221993239596486, -0.0011329734697937965, -0.0010439535835757852, -0.0009549336973577738, -0.0008659138693474233, -0.0007768940413370728, -0.0006878741551190615, -0.0005988542689010501, -0.0005098344408906996, -0.0004208145837765187, -0.0003317947266623378, -0.00024277486954815686, -0.00015375501243397593, -6.473518442362547e-05, 2.4284468963742256e-05, 0.00011330432607792318, 0.0002023241831921041, 0.000291344040306285, 0.00038036389742046595, 0.00046938375453464687, 0.0005584036116488278, 0.0006474234396591783, 0.0007364433258771896, 0.000825463212095201, 0.0009144830401055515, 0.001003502868115902, 0.0010925227543339133, 0.0011815426405519247, 0.0012705624103546143, 0.0013595822965726256, 0.001448602182790637, 0.0015376220690086484, 0.0016266419552266598, 0.0017156617250293493, 0.0018046816112473607, 0.001893701497465372, 0.0019827212672680616, 0.002071741037070751, 0.0021607610397040844, 0.002249780809506774, 0.002338800812140107, 0.0024278205819427967, 0.00251684058457613, 0.0026058603543788195, 0.002694880124181509, 0.0027839001268148422, 0.0028729198966175318]}, "gradients/graph_4net.conv2d_06.weight": {"_type": "histogram", "values": [1.0, 0.0, 0.0, 1.0, 0.0, 0.0, 3.0, 4.0, 0.0, 3.0, 3.0, 4.0, 4.0, 6.0, 10.0, 12.0, 19.0, 18.0, 25.0, 25.0, 36.0, 39.0, 69.0, 123.0, 167.0, 245.0, 402.0, 659.0, 1267.0, 2600.0, 6707.0, 34875.0, 14892.0, 5086.0, 2505.0, 1457.0, 846.0, 583.0, 320.0, 230.0, 158.0, 99.0, 54.0, 48.0, 39.0, 23.0, 12.0, 19.0, 6.0, 4.0, 5.0, 6.0, 2.0, 1.0, 0.0, 2.0, 0.0, 0.0, 1.0, 0.0, 1.0, 0.0, 1.0, 1.0], "bins": [-0.004201006609946489, -0.004068736452609301, -0.003936465829610825, -0.003804195672273636, -0.0036719252821058035, -0.003539654891937971, -0.0034073847346007824, -0.00327511434443295, -0.0031428439542651176, -0.0030105735640972853, -0.002878303173929453, -0.002746033016592264, -0.002613762626424432, -0.0024814922362565994, -0.0023492220789194107, -0.0022169516887515783, -0.002084681298583746, -0.0019524109084159136, -0.001820140634663403, -0.0016878703609108925, -0.0015555999707430601, -0.0014233295805752277, -0.0012910593068227172, -0.0011587890330702066, -0.0010265186429023743, -0.0008942483109422028, -0.0007619779789820313, -0.0006297076470218599, -0.0004974373150616884, -0.00036516698310151696, -0.0002328966511413455, -0.00010062631918117404, 3.164401277899742e-05, 0.00016391434473916888, 0.00029618467669934034, 0.0004284550086595118, 0.0005607253406196833, 0.0006929956725798547, 0.0008252660045400262, 0.0009575363365001976, 0.0010898066684603691, 0.0012220770586282015, 0.001354347332380712, 0.0014866176061332226, 0.001618887996301055, 0.0017511583864688873, 0.0018834286602213979, 0.0020156989339739084, 0.002147969324141741, 0.002280239714309573, 0.0024125101044774055, 0.0025447802618145943, 0.0026770506519824266, 0.002809321042150259, 0.0029415911994874477, 0.00307386158965528, 0.0032061319798231125, 0.003338402369990945, 0.0034706727601587772, 0.003602942917495966, 0.0037352133076637983, 0.0038674836978316307, 0.003999753855168819, 0.0041320244781672955, 0.004264294635504484]}, "gradients/graph_4net.conv2d_03.bias": {"_type": "histogram", "values": [2.0, 1.0, 1.0, 0.0, 1.0, 1.0, 0.0, 0.0, 1.0, 0.0, 0.0, 0.0, 0.0, 2.0, 1.0, 2.0, 1.0, 2.0, 0.0, 0.0, 0.0, 1.0, 0.0, 4.0, 2.0, 3.0, 6.0, 2.0, 2.0, 5.0, 0.0, 3.0, 5.0, 2.0, 0.0, 2.0, 2.0, 0.0, 1.0, 2.0, 0.0, 1.0, 1.0, 0.0, 0.0, 0.0, 2.0, 0.0, 1.0, 0.0, 0.0, 1.0, 0.0, 0.0, 0.0, 0.0, 0.0, 0.0, 0.0, 0.0, 0.0, 0.0, 0.0, 1.0], "bins": [-0.0031409510411322117, -0.003022691234946251, -0.002904431661590934, -0.002786171855404973, -0.002667912282049656, -0.002549652475863695, -0.0024313926696777344, -0.0023131330963224173, -0.0021948735229671, -0.0020766137167811394, -0.0019583541434258223, -0.0018400943372398615, -0.0017218347638845444, -0.0016035749576985836, -0.0014853152679279447, -0.0013670555781573057, -0.001248795771971345, -0.001130536082200706, -0.001012276392430067, -0.0008940166444517672, -0.0007757569546811283, -0.0006574972649104893, -0.0005392375169321895, -0.0004209778271615505, -0.0003027181373909116, -0.0001844584330683574, -6.619872874580324e-05, 5.206099012866616e-05, 0.0001703206798993051, 0.00028858036966994405, 0.0004068401176482439, 0.0005250998074188828, 0.0006433594971895218, 0.0007616191869601607, 0.0008798788767307997, 0.0009981386829167604, 0.0011163982562720776, 0.0012346580624580383, 0.0013529177522286773, 0.0014711774419993162, 0.0015894371317699552, 0.001707696821540594, 0.001825956511311233, 0.001944216201081872, 0.0020624760072678328, 0.00218073558062315, 0.0022989953868091106, 0.0024172551929950714, 0.0025355147663503885, 0.0026537745725363493, 0.0027720341458916664, 0.002890293952077627, 0.0030085535254329443, 0.003126813331618905, 0.003245072904974222, 0.003363332711160183, 0.0034815925173461437, 0.0035998523235321045, 0.0037181118968874216, 0.0038363717030733824, 0.0039546312764286995, 0.00407289108261466, 0.004191150888800621, 0.0043094102293252945, 0.004427670035511255]}, "gradients/graph_4net.conv2d_03.weight": {"_type": "histogram", "values": [1.0, 1.0, 1.0, 0.0, 2.0, 1.0, 0.0, 2.0, 0.0, 3.0, 4.0, 4.0, 6.0, 5.0, 11.0, 11.0, 13.0, 17.0, 24.0, 35.0, 38.0, 45.0, 51.0, 71.0, 95.0, 130.0, 193.0, 255.0, 417.0, 729.0, 1565.0, 7895.0, 3424.0, 1357.0, 678.0, 403.0, 252.0, 185.0, 105.0, 111.0, 57.0, 51.0, 42.0, 33.0, 28.0, 15.0, 16.0, 9.0, 6.0, 10.0, 4.0, 8.0, 3.0, 4.0, 0.0, 0.0, 1.0, 2.0, 1.0, 0.0, 0.0, 0.0, 1.0, 1.0], "bins": [-0.006879646331071854, -0.006663204170763493, -0.0064467620104551315, -0.0062303198501467705, -0.006013877224177122, -0.005797435063868761, -0.0055809929035604, -0.005364550743252039, -0.005148108117282391, -0.0049316659569740295, -0.0047152237966656685, -0.0044987816363573074, -0.004282339010387659, -0.004065896850079298, -0.003849454689770937, -0.003633012529462576, -0.003416570369154215, -0.003200128208845854, -0.002983685815706849, -0.002767243655398488, -0.0025508012622594833, -0.0023343591019511223, -0.0021179169416427612, -0.0019014746649190784, -0.0016850323881953955, -0.0014685901114717126, -0.0012521478347480297, -0.0010357056744396687, -0.0008192633977159858, -0.0006028211209923029, -0.00038637896068394184, -0.00016993668396025896, 4.650605842471123e-05, 0.00026294830604456365, 0.0004793905536644161, 0.000695832772180438, 0.0009122750489041209, 0.0011287173256278038, 0.0013451594859361649, 0.0015616017626598477, 0.0017780440393835306, 0.0019944861996918917, 0.0022109285928308964, 0.0024273707531392574, 0.0026438129134476185, 0.002860255306586623, 0.0030766974668949842, 0.003293139860033989, 0.00350958202034235, 0.003726024180650711, 0.003942466340959072, 0.004158908501267433, 0.0043753511272370815, 0.004591793287545443, 0.004808235447853804, 0.005024677608162165, 0.005241120234131813, 0.005457562394440174, 0.005674004554748535, 0.005890446715056896, 0.006106889341026545, 0.006323331501334906, 0.006539773661643267, 0.006756215821951628, 0.006972657982259989]}, "gradients/graph_4net.conv2d_00.bias": {"_type": "histogram", "values": [1.0, 0.0, 0.0, 0.0, 0.0, 0.0, 0.0, 0.0, 0.0, 0.0, 0.0, 0.0, 0.0, 0.0, 0.0, 0.0, 0.0, 1.0, 0.0, 0.0, 1.0, 2.0, 1.0, 0.0, 1.0, 3.0, 0.0, 0.0, 2.0, 0.0, 0.0, 0.0, 1.0, 2.0, 2.0, 0.0, 0.0, 1.0, 0.0, 0.0, 3.0, 0.0, 0.0, 1.0, 0.0, 0.0, 0.0, 2.0, 1.0, 0.0, 0.0, 0.0, 0.0, 0.0, 0.0, 1.0, 1.0, 0.0, 0.0, 1.0, 1.0, 1.0, 1.0, 1.0], "bins": [-0.0066133178770542145, -0.006420705001801252, -0.00622809212654829, -0.006035478785634041, -0.005842865910381079, -0.005650253035128117, -0.005457639694213867, -0.005265026818960905, -0.005072413943707943, -0.004879801068454981, -0.004687188193202019, -0.004494574852287769, -0.004301961977034807, -0.004109349101781845, -0.003916735760867596, -0.0037241228856146336, -0.0035315100103616714, -0.0033388971351087093, -0.0031462840270251036, -0.002953670918941498, -0.0027610580436885357, -0.0025684451684355736, -0.002375832060351968, -0.002183218952268362, -0.0019906060770154, -0.001797993085347116, -0.001605380093678832, -0.0014127671020105481, -0.0012201541103422642, -0.0010275411186739802, -0.0008349281270056963, -0.0006423151353374124, -0.0004497016780078411, -0.00025708868633955717, -6.447569467127323e-05, 0.0001281372969970107, 0.00032075028866529465, 0.0005133632803335786, 0.0007059762720018625, 0.0008985892636701465, 0.0010912022553384304, 0.0012838152470067143, 0.0014764282386749983, 0.0016690412303432822, 0.0018616542220115662, 0.0020542670972645283, 0.002246880205348134, 0.00243949331343174, 0.002632106188684702, 0.002824719063937664, 0.00301733217202127, 0.0032099452801048756, 0.0034025581553578377, 0.0035951710306108, 0.0037877841386944056, 0.003980397246778011, 0.0041730101220309734, 0.0043656229972839355, 0.004558236338198185, 0.004750849213451147, 0.004943462088704109, 0.005136074963957071, 0.005328687839210033, 0.005521301180124283, 0.005713914055377245]}, "gradients/graph_4net.conv2d_00.weight": {"_type": "histogram", "values": [2.0, 1.0, 1.0, 5.0, 3.0, 9.0, 3.0, 4.0, 5.0, 6.0, 4.0, 2.0, 5.0, 4.0, 4.0, 6.0, 6.0, 6.0, 8.0, 18.0, 19.0, 14.0, 18.0, 9.0, 7.0, 11.0, 4.0, 4.0, 5.0, 5.0, 7.0, 8.0, 10.0, 4.0, 5.0, 2.0, 6.0, 2.0, 3.0, 8.0, 1.0, 4.0, 4.0, 3.0, 5.0, 2.0, 1.0, 2.0, 1.0, 1.0, 1.0, 1.0, 3.0, 4.0, 1.0, 0.0, 0.0, 0.0, 0.0, 0.0, 0.0, 0.0, 0.0, 1.0], "bins": [-0.002354681957513094, -0.0022424152120947838, -0.0021301484666764736, -0.002017881954088807, -0.001905615208670497, -0.0017933484632521868, -0.0016810818342491984, -0.00156881520524621, -0.0014565484598279, -0.0013442817144095898, -0.0012320150854066014, -0.001119748456403613, -0.001007481710985303, -0.0008952150237746537, -0.0007829483365640044, -0.0006706816493533552, -0.0005584149621427059, -0.00044614827493205667, -0.0003338815877214074, -0.00022161490051075816, -0.00010934821330010891, 2.9184739105403423e-06, 0.0001151851611211896, 0.00022745184833183885, 0.0003397185355424881, 0.00045198522275313735, 0.0005642519099637866, 0.0006765185971744359, 0.0007887852843850851, 0.0009010519715957344, 0.0010133186588063836, 0.001125585287809372, 0.0012378520332276821, 0.0013501187786459923, 0.0014623854076489806, 0.001574652036651969, 0.0016869187820702791, 0.0017991855274885893, 0.0019114521564915776, 0.002023718785494566, 0.002135985530912876, 0.0022482522763311863, 0.0023605190217494965, 0.002472785534337163, 0.002585052279755473, 0.0026973190251737833, 0.00280958553776145, 0.00292185228317976, 0.00303411902859807, 0.0031463857740163803, 0.0032586525194346905, 0.003370919032022357, 0.003483185777440667, 0.0035954525228589773, 0.003707719035446644, 0.003819985780864954, 0.003932252526283264, 0.004044519271701574, 0.0041567860171198845, 0.004269052762538195, 0.004381319507956505, 0.004493585787713528, 0.004605852533131838, 0.004718119278550148, 0.004830386023968458]}, "loss": 0.08493473380804062, "train_acc": 0.7878166666666667, "test_acc": 0.9691, "alea": 2.5449490547180176, "epis": 0.6548557877540588, "pi_entropy": 1.2271839380264282, "top2_pi": 0.12627215683460236, "_runtime": 32, "_timestamp": 1626012379, "_step": 1}